1.423818850548880521e-01
-2.903571321661063132e-01
-2.475964260025851627e-01
-5.210167250483334345e-02
4.046109918270614225e-02
-5.046261381979925270e-02
5.566956150554636107e-02
5.486729211724133103e-03
1.339775324457146213e-02
1.587991425181637870e-02
-4.225202007778779134e-02
-8.290488709311757271e-03
3.726051760491153608e-01
-4.115156987571185754e-01
-1.850776403346050814e-02
1.947807980187356638e-02
-1.221963350027341008e-02
1.479393676759743238e-02
-2.150707309117870589e-03
-4.747610917773212869e-01
5.449561475467010752e-01
3.301462417345180644e-01
1.090397282028582604e-01
1.183795516009717996e-01
-2.968954049251826613e-02
1.962659100120033723e-02
2.266563248517260241e-03
1.164943577698721450e-01
-1.360494270904250569e-01
-2.957272316033232595e-01
-1.385354614883998747e-01
-5.142144345748608791e-02
-5.710416822826542421e-02
-7.625579399892203937e-03
3.616993939172132716e-02
-1.868507809054704982e-01
-1.075676821667021360e-01
4.501029411187115054e-02
4.461816555449444471e-02
-6.196336242714576073e-03
5.877087553013102955e-02
-2.142259368254138645e-05
9.385540992111425290e-04
8.868512314938271912e-03
1.111313494566891491e-02
2.229289733756292455e-02
1.655898011787821159e-02
1.766944211053896908e-03
1.113937889255833640e-02
7.148186366612610879e-03
-1.298183082848913122e-03
1.442286826755058600e-02
